# Weights for layer 1; shape (24, 4)
1.931636240825989059e+00 6.840555556982691465e-01 4.234975419375958117e-01 -1.222411585938617096e+00
-1.028506580240141854e+00 -7.402285738822500516e-01 -4.478407593782476326e-01 -5.347564749168260967e-01
-8.643981583916917621e-01 -7.946201958848607694e-01 -1.383354211589737037e+00 5.045536216176479405e-01
1.301733868325591459e+00 1.611288258017000929e+00 3.561003731380305015e-01 -2.067347344211554472e-01
-1.057583091861334257e+00 -1.449568283788505774e+00 3.094615071468865830e-01 -8.819887210076590156e-01
-1.689343847211316252e+00 -6.562289221591247612e-01 6.738452008873018206e-01 8.469480461056526355e-02
-1.546433983267610390e+00 -9.312215731600357316e-01 -7.650577275819664402e-02 -2.692927197246781090e-01
4.683217022314522526e-01 3.787228256586782082e-01 1.125097239993451792e+00 1.569562402757278985e+00
-1.440626119309506903e+00 -7.434771841077751908e-01 -8.914287756783227934e-01 -1.800027105903330593e+00
-1.507949487867034311e+00 -1.158361978483884558e+00 2.506356464678927143e-01 -2.535297948917569766e-01
-1.845458017948976792e+00 5.044112613155761482e-02 -5.887981607664344308e-01 -1.314159369996032112e+00
-1.120053934860822942e+00 -8.438817218769910644e-01 -9.220547333742639129e-01 -4.940517765108690812e-02
-2.288735447341795126e+00 -5.452219572725022223e-01 2.467571668233628224e-01 4.539328271522234393e-01
1.357792825120230029e+00 1.120238100732944497e+00 1.341687934055045162e+00 -7.164542001035267837e-01
-2.333812782607537217e-01 -1.782553034400794267e+00 -8.633368436217339070e-01 -1.468777937569635039e+00
1.394816639631905719e+00 1.294936066556056309e+00 2.409741597678987657e-01 1.362833554901519584e+00
-1.368931625113125383e+00 -3.740079371794378660e-01 -4.114561254739424467e-01 -8.998961994420110466e-01
1.154301488217432281e+00 1.809658401269014449e+00 -2.113685413106887734e-01 7.824707563170373303e-01
6.230899372155611626e-01 1.632366724380755141e+00 7.914167948694108556e-01 6.095255186668360192e-01
-5.919818255634861082e-01 -3.329011959075329208e-01 -1.709750856858125223e+00 7.578086187655865835e-01
5.247674601499777158e-02 7.029402293206011842e-01 1.148575722336504734e+00 -3.443169606051577070e-01
9.758884688893177950e-01 1.297311971620781490e+00 4.835477536123002351e-01 -4.883316383362564794e-01
-2.417391977843649453e+00 -8.933617768657337033e-01 -5.931135880687105066e-01 -4.087708424150597319e-01
5.243010499822611248e-01 9.047805590861272007e-01 3.154224897680354966e-01 1.317892080545610412e-01
