# Weights for layer 2; shape (3, 24)
6.734819856118940962e-01 -2.472451691496310167e-01 6.509376971356788388e-01 1.471108041311655290e+00 -3.557070788770275716e-01 -2.270056415745846934e+00 -2.341598440698122452e-01 -1.488596364191559163e+00 1.965594627830709040e+00 -1.051858814590267199e+00 9.789266101573931289e-01 2.611124713522230967e-01 -1.047940380684642125e-01 -2.218321435268132136e-01 5.767189102939047629e-01 -4.603312022396928715e-01 6.125420307075299942e-01 1.409926433677114455e+00 -5.603082784866031396e-01 1.596621306274887520e+00 3.471376193546436562e-01 1.127340006872926903e+00 -1.400582119992496988e-01 1.363743398310579336e+00
4.364889613191384465e-01 2.055120678823199598e-01 -5.724792132186550253e-01 -5.862895213616832191e-01 3.083550997486981249e-01 -3.466645279307845606e-01 -4.140968902534424012e-02 -9.468021302216412804e-01 5.911929120217960243e-01 -3.369221083948049089e-01 -3.963258431802147985e-01 4.111680981043126515e-01 -1.281080055372924020e-01 3.206738745122765799e-01 1.077824902756018499e+00 -5.176022057227362971e-01 6.248953631201472486e-02 -5.812911592041399705e-02 -4.574403126183564927e-01 -8.326717661422234906e-01 -5.176644246133762506e-01 1.975086693200873711e-01 -4.553075804697545026e-01 1.031578353878862125e-01
-1.316421841416305805e+00 1.290468337163148405e-01 -2.596235269760412967e-01 -8.083123002587835337e-01 6.061923672332074631e-01 2.468231487690310200e+00 -1.873199120982305468e-02 2.987414040655836711e+00 -2.740339246583880062e+00 1.236111322481333152e+00 -7.835845019650143906e-01 -2.094229328830402581e-01 4.449174887148981683e-01 -1.686649615075084541e-01 -1.682994117895477704e+00 1.073095755040870403e+00 -1.156938185519661433e+00 -8.735529185693319265e-01 5.915296255037424400e-01 -1.481961617410175736e+00 9.271837999929455343e-01 -1.179516477232749772e+00 -3.766705243766731853e-02 -3.135759628198679927e-01
