# Weights for layer 2; shape (3, 24)
3.256787410024638341e+00 -2.786538779806550625e+00 -2.861488148321330360e+00 3.713881622357855683e+00 -2.117028902818647751e+00 -3.091209418959740329e+00 -3.027653491730530888e+00 2.391826538454676410e+00 -2.590818154160944964e+00 -2.940433160745646646e+00 -3.068669799524931019e+00 -2.945721629729655788e+00 -2.898154167764859679e+00 3.172842181753879665e+00 -2.808958011011021494e+00 2.986513060742576720e+00 -2.937103358161953448e+00 3.290254247762988804e+00 2.456504290025629533e+00 -2.353287075547879859e+00 1.649494309174874829e+00 2.975707008082888017e+00 -3.497712596355555092e+00 2.862306734573059952e+00
2.896902743514421452e+00 -2.580202845504392606e+00 -3.248415219161651546e+00 2.608305927548055791e+00 -2.037661446652538455e+00 -2.303893122654235182e+00 -3.048723208997194067e+00 2.856901082799804037e+00 -3.445425448597748019e+00 -3.092338029887222284e+00 -3.268887088825336296e+00 -2.436302938404768970e+00 -2.822246736963581082e+00 3.100701615592240223e+00 -2.734952341322806735e+00 3.036805918492463174e+00 -3.150866771050806925e+00 3.260886834624307173e+00 2.655901374546843385e+00 -3.321899194054967364e+00 1.288468189508480854e+00 2.805231782643490490e+00 -3.320465032019410234e+00 2.706148320610360258e+00
2.623269074398219214e+00 -2.346030210885505340e+00 -2.720918602749772042e+00 2.836885630251616774e+00 -1.717961706336167849e+00 -1.911538144598812217e+00 -3.043416202468355092e+00 3.015010656860423133e+00 -3.397149544674238797e+00 -2.608303183708222228e+00 -3.007251484281530551e+00 -2.698263469979340190e+00 -2.992942519842254789e+00 3.004696356600613516e+00 -2.830325649796038956e+00 3.256400676070186240e+00 -3.059406935188231813e+00 2.801848207629310750e+00 2.611254474461157660e+00 -3.041167061118273729e+00 2.232887595164557926e+00 2.526845183062657707e+00 -3.515742379690243613e+00 2.521675521663080399e+00
