# Weights for layer 3; shape (10, 100)
-1.740360930455184807e-01 -5.854571944435128794e-02 -2.677355781194620810e-01 -6.896490958377134162e-02 -1.110751728161053602e-02 -4.500081527584720575e-02 1.848529793496241913e-01 2.655906021707616846e-02 8.751744965401742071e-02 -1.049493883333963984e-01 4.823843143520169241e-02 1.270023478975622899e-01 -7.540268124598414889e-02 -7.004391100332017783e-02 2.809110532468046123e-02 7.019041939991157997e-02 -1.904616991409728843e-01 3.031091992492552234e-01 -1.622736464823330282e-01 1.851017019273204778e-01 3.949227529461081243e-01 4.976573906734945152e-01 4.513840236084293300e-02 5.135934503937385903e-02 -3.115843573948618994e-01 -3.205763564993155401e-01 1.715803665446493098e-01 -3.248571621724267999e-02 3.092885677387025578e-01 4.868068005517652008e-03 -3.500443433312733221e-02 -2.035802964063223100e-03 -3.480379539047228077e-01 -1.163545008102436114e-02 -1.440179028627445457e-01 -2.986388475294382561e-01 -1.981002966169086443e-01 1.179269858146461680e-01 1.296992911151959860e-01 -1.939325651631577663e-01 8.696092241420806570e-05 8.243125878526370159e-03 -1.433740817286579816e-01 -2.996332217584733726e-02 -1.766389530547502473e-01 -3.485860141608436158e-01 -3.672134223378391016e-01 2.336341775956116418e-01 -2.970286778731782151e-01 -2.599168789803767421e-01 -4.047151022263399678e-02 1.990871869213360901e-01 1.434760185809932087e-01 8.124615960084817512e-02 2.596996665725995745e-01 1.331005182108483953e-01 1.624926008110116893e-01 -6.465733926127932574e-02 -1.156803612521743740e-01 -5.441511594472857663e-04 2.097425175760116167e-01 -1.845374068601979556e-01 -4.678904586157260903e-01 8.074220109452349969e-02 4.685538475144112799e-03 -1.304101871077552321e-01 2.755816708884178956e-01 1.703473194886874764e-01 -3.841328492826596719e-01 -9.149010791325777603e-02 3.171117004843914539e-02 -3.153075102036408811e-02 -1.355230054327401512e-01 7.362444201008859490e-02 -7.467498336271159720e-02 2.714620793945204946e-01 -7.418620419214531914e-02 -1.939138197460743285e-01 -1.190945351554463932e-01 -3.092615183274131652e-01 -1.029121311723014826e-01 9.647703348434495674e-02 -1.439827250053854202e-01 1.178589223131252806e-01 -2.213128867865642724e-01 -7.548425361268594480e-02 1.223348878652482652e-01 1.527832946393404001e-01 -1.496859773318215681e-01 -1.890015149816025308e-01 -1.943786973274725938e-01 -2.703927219426372486e-01 -2.190680747979697248e-03 1.964738177436488875e-01 1.690658551517403019e-01 -4.374908240294145961e-02 -3.584846195197823326e-01 3.059610459443821984e-02 -2.334173517974932055e-01 -6.785292293351555815e-01
-1.757120936175485260e-01 -6.358884279853266319e-02 1.376604650016388931e-01 -1.483124554043562249e-01 1.441794704552724349e-01 1.808853891639698036e-02 -3.595902864319031611e-01 -1.912190697270542972e-01 1.097784855771166135e-01 -1.264140778937465626e-01 2.434772398451815756e-01 -1.390755468882730050e-01 -1.897523590286520068e-01 6.493806098821842954e-02 -1.768530579530126767e-01 1.125184680234988382e-01 1.137612744460610864e-01 2.704976403262959739e-02 2.009605348866011776e-01 -2.447772950020447036e-01 8.374654354781108090e-02 1.537885170830746162e-01 -2.867170652963161870e-01 1.270947175676369889e-01 -1.512348962248494244e-01 -3.723748198046222257e-01 3.871166830379201701e-02 5.697380370744214301e-02 1.956311261149219771e-01 2.143312010828267722e-01 8.116598391825423364e-02 7.430666790727888382e-02 5.838224783800210864e-03 2.652342778356861497e-01 1.817916639272614820e-01 7.571600445169654470e-02 3.538885420665872639e-01 -1.383940648365027393e-01 3.698358030811185193e-01 2.432891018625639099e-02 -5.089739018589702763e-02 1.630644882807741336e-01 -9.314137804271760412e-03 8.048206055141887694e-02 7.268579809112614420e-02 -1.904483035986332951e-01 7.412121827662548901e-02 1.605359627808206624e-01 -5.359483697810560332e-02 2.487360426955927961e-01 4.764036160154348082e-02 1.181396171018356395e-01 -1.336614732053674204e-01 -1.236969407980014618e-01 -3.825676727416508216e-01 2.035478133328826322e-01 -2.900175659694359184e-02 1.342478877775536705e-01 -8.454325139162444103e-02 1.348251087022591388e-01 -9.132561105460244855e-02 1.159029784162390608e-01 -1.253440437366955817e-01 7.347304205136881428e-02 -4.017459478179769700e-02 2.399965513872899803e-01 -1.562261930856893334e-02 7.912663162453519028e-02 -2.575208708233902785e-03 1.909685232673937749e-01 4.433688151265817723e-01 -3.542686046983407194e-02 -3.232836841418170737e-01 -2.966892991981167627e-01 1.076578465802733447e-01 1.341474730069465715e-01 3.917450567664707700e-02 2.047750254795775715e-02 -1.293229198712388950e-01 5.115984554075339585e-02 -1.103741350357246298e-01 6.233270249994009304e-02 -2.213870814728258196e-02 3.518244312541483898e-02 -3.587696169256049950e-01 1.696983433701223509e-01 -1.909558476555061335e-01 3.093840394034210600e-02 5.803122625015427749e-02 6.233294086409485804e-03 -2.480017189832491864e-01 1.897525245887225209e-01 -3.834420104202308083e-02 -6.484343177903278965e-02 -8.178673729087243549e-02 3.533950705700589917e-02 -1.431583478726425607e-01 2.788343060155288461e-02 -5.335013629787194178e-01 -1.774059389022845379e-01
1.447144778925186191e-02 -2.122887869493072510e-01 2.062161882835676086e-01 -4.080339798203100332e-01 8.660693280097797597e-02 4.378059953011869676e-01 2.829602313161282967e-01 2.417793123054133853e-01 -1.239962123116529757e-01 9.850214550910131595e-02 -2.783863375071678886e-02 -1.253928362990451018e-01 -2.140755594025125011e-02 3.153302043953939982e-01 -6.815011091683254030e-02 9.247283907930858859e-02 -1.055007395824907740e-01 1.135875520544297468e-01 -3.072698089468263172e-01 1.736117152365751135e-02 3.962021278739012997e-01 3.483458708357095035e-01 1.037488542540876586e-02 -1.677890554502076415e-01 -2.065571562521633930e-01 2.419772310360641387e-01 2.467077138582496679e-02 -3.905874302300616496e-01 -1.087523473490686343e-01 5.506671422468769478e-02 -1.363318968019877619e-02 2.396207126709018753e-01 1.893563026788549000e-02 -1.786164978218342803e-01 -3.005220819786597053e-02 -5.339613721952046754e-01 -1.953225648047224872e-01 2.555050327006901933e-01 1.792189261514795517e-01 -2.483601325853715680e-01 -1.697184482363513491e-01 1.532251168911962502e-01 1.934533077748114560e-01 -5.957697102035759695e-02 2.442573145711133542e-01 2.461603192213680236e-01 1.561459660514948888e-01 1.869720185408291491e-01 -5.585367574442903771e-02 2.222592107210944190e-01 -2.068565435121458296e-01 1.480900792944544186e-01 3.201512308814727925e-01 -1.479764401103176030e-01 5.750769660021583241e-02 -6.620401665940167657e-02 -7.469093753217508069e-02 2.584584538952483176e-02 -3.003613856980593133e-01 6.778856437980046966e-03 -4.267123401659558835e-02 4.336019051536983693e-02 -2.832658423923708479e-01 4.975493999108048654e-02 -8.574246012694734798e-03 1.699656407014502602e-01 -8.588030384105534154e-02 -1.395458544079907215e-01 4.894854895388874028e-02 -3.498902018593424285e-02 -8.046693502861823610e-02 2.581300474502324915e-01 -1.306139358518017546e-01 1.098096480801683955e-01 1.910446805581216545e-01 -8.356661991020182534e-02 7.420301936135902110e-02 -2.260449139567935820e-02 -1.068976650165608944e-01 -2.332437995386368312e-01 -8.252185010110410501e-02 7.577912497621105969e-02 -2.948277698318909068e-01 5.593695090369527056e-02 4.721294667990634519e-02 -1.525516463570526504e-01 -2.026097859388633349e-01 2.832988006787112711e-01 1.196280834791196707e-01 -2.516659998550886332e-02 1.759802316388687504e-01 -5.197498299655400195e-02 5.536486304380851438e-03 7.688968239813059879e-02 6.295150246330814478e-03 1.801491383443615951e-02 -1.275450980524350242e-01 1.905626857978613142e-01 2.347887796668390314e-01 -3.557697123690876095e-01
1.909961325386086151e-01 -6.429660464625594485e-02 -4.579859840566419260e-02 1.732488233791375787e-01 -8.035835547248496025e-02 6.232876379280672535e-02 -2.755095038729399870e-01 5.722620641633961031e-02 -1.163643935358659315e-01 -2.282405460252044382e-01 2.337779204411512615e-02 2.622769290972322143e-01 3.596735491983957256e-02 1.429583780987680464e-01 2.606168250716149951e-02 -2.253117988605041894e-02 3.244982944003496073e-01 -7.823646055177040093e-02 -2.940432931419488805e-01 -1.396464402625438583e-01 1.489422547571677725e-02 3.078849947921231123e-01 3.442352370545925799e-02 1.157981265851129038e-01 -1.061220008168445028e-01 -1.819425025957538411e-01 2.577501829894828997e-02 1.130096786228860645e-01 -1.220764752993270669e-01 -1.914644088357790250e-02 -2.252340610586738012e-01 -1.922476332153681688e-01 9.734427269202232391e-02 -3.999159237027895969e-02 8.315573629525702115e-02 -3.122885473115694088e-01 -3.330044106118109637e-01 1.750809828833638782e-01 4.825701575161836510e-01 -2.365352991074275990e-01 8.515019412904051635e-03 -4.805572247031015404e-02 3.659773245260625196e-01 -8.200388898366325896e-02 2.927724520234956454e-02 -1.331441608968081391e-01 -6.377386104391298549e-02 1.387149588893828167e-01 2.005217989158631087e-01 8.900806628993732095e-02 2.383557269860735531e-02 -2.785460885315760304e-01 2.561736666991094036e-01 -8.859227958370356759e-02 3.596326642432548515e-02 2.277882390473923990e-01 8.111851539434511427e-02 -1.113378203864012067e-01 -6.372498264073704621e-02 1.097780932312263785e-01 -5.289509049591526596e-03 -2.884427261850878305e-02 -2.566261466581638562e-01 5.010139589208516542e-01 2.359969644530404698e-01 1.542016444045055112e-01 1.426299163735871012e-01 -7.838441534109691355e-02 5.253946640236053373e-02 -2.374822922659301783e-01 1.708822394314095938e-01 7.261915126697147949e-02 6.582560819786452411e-02 -1.690193519922306500e-02 -1.883143421654821514e-01 -2.247715632760413987e-02 -1.014118906594280445e-01 -4.376001722759343543e-02 1.216078589926669444e-02 -1.679081378563089255e-01 -1.388645903109630986e-01 2.789328386305168217e-01 1.739758240287056848e-02 3.169426032023043432e-02 4.798771421108374846e-02 -1.080779109416890593e-01 -1.968134493289572517e-01 9.911140127519518783e-02 -1.418608746295198508e-01 -7.960346362944739629e-02 6.913541247551296953e-02 -5.535334860311188349e-02 3.596599904679030346e-01 -4.824166326599305110e-02 2.909675142881535947e-01 -9.922955026900213971e-02 -6.925702295403140911e-03 3.077727334443765006e-01 7.811326436846434407e-02 -8.902153579423045457e-03
-1.240279257325946627e-01 1.642837745795273641e-01 5.908983872338861854e-02 2.897798249334828657e-01 2.230863943045865647e-02 -3.188916358339220769e-02 2.418859553562432985e-02 2.072440886075770650e-01 1.255536005559685087e-01 -3.329074103145804875e-01 2.902400840999316278e-01 2.429044985547833824e-01 -2.136069439382960126e-03 6.937013609251552323e-04 1.692266895081509237e-01 1.880990842068208935e-01 2.531656761293855085e-01 6.144600056570911906e-02 -1.033165709214522721e-01 3.966962458722259749e-02 3.229791599102534438e-01 5.965854300430974144e-02 1.096999111226439338e-01 3.991630442972401438e-01 -1.093251211028941766e-01 -3.960575355954255861e-02 -8.554129313990842254e-02 -3.994785427841370806e-01 -2.434158747176786708e-01 -4.218093168765643663e-02 4.622038928997758422e-02 1.440974655681505623e-01 -2.401683746069650793e-01 1.509265090371805507e-01 2.834562506693882877e-01 -3.054973077209995336e-01 -4.282523556447410257e-02 -9.279251907461658067e-02 3.124319049448012059e-02 2.758715827580950769e-02 -1.362710073244818576e-01 2.424587340265925983e-01 6.501744758152691595e-02 5.527043446378192282e-02 -1.412344017657213291e-01 2.794848142210716313e-01 4.257938987634249384e-02 4.933587560122683346e-02 1.603267648806189216e-02 -1.386028715741126627e-01 3.419156036389293107e-01 7.181847201373033063e-02 4.823066460999368699e-02 -1.829819571360124797e-01 -8.736093626910240717e-02 -4.011103830048710905e-02 5.970222803907005923e-03 2.061776734920982568e-01 2.914947114349158291e-02 5.147029049160435936e-04 1.231236384596742228e-01 8.819775010026459361e-02 7.695795019871672082e-03 2.467883564725340539e-01 -9.970898013998971687e-02 -2.138480314576420294e-01 9.647895847611520637e-02 1.142251368400384048e-01 -2.043840582233805714e-01 1.407766501831558270e-01 1.104794936100061825e-01 1.406131128205083403e-01 -2.374318286285630464e-01 9.747079792801877085e-02 -1.679028002155788790e-01 2.105313110929714626e-01 -3.092903211257288509e-01 -1.331772605870523707e-02 -5.210751879573759932e-02 -1.075840747848666457e-02 1.482131696852623526e-01 -1.047110536265229153e-01 -3.343923055080891965e-02 6.049867036255188180e-02 -2.609650329035028207e-02 -9.761816932071408492e-02 -2.210788857062672419e-01 1.645036058249086386e-01 -3.730712963493972023e-02 2.107963995418528358e-02 -3.753415702689042593e-02 -9.658683742414762852e-02 1.573570069790848347e-01 3.379030902086973542e-01 2.686908046206190059e-01 4.184718568732186811e-02 -1.042974358810401792e-01 -6.036180656326425864e-02 2.081921814790632652e-01 4.079734353356520571e-02
1.688218955944355282e-01 -1.426427175243171197e-01 1.629820958836819544e-01 1.491897979544196395e-01 -2.138233262660838713e-02 3.541125935152072413e-01 -1.594222382109022895e-01 -1.666360852271616955e-01 -3.362968341629510305e-01 -1.853651491174975185e-01 1.905513835137802592e-01 6.959888748670381431e-02 -5.093051439128901819e-02 -1.647275871364881628e-01 -9.424673319218550283e-02 2.409715547368977973e-01 4.037749468361796767e-02 6.775167561823611240e-02 8.984461332901150232e-02 3.885766278694350456e-02 1.102495950842759670e-01 3.061348599430098183e-01 -1.343952532181574844e-01 2.938060823307945060e-02 -1.454235567374568550e-01 2.792913399962583532e-02 -2.569991122699681330e-01 2.136733855393610146e-03 -1.361144556262660621e-01 -3.415577006141740698e-03 2.664922114398498576e-01 7.915853308174349359e-03 -2.679566050209692962e-01 -1.380891572740445272e-01 1.624704980278043331e-01 1.282059073462729071e-01 9.298999627261921030e-02 -1.139411371815723245e-01 2.572560995632659497e-01 1.076729008226144924e-01 4.019975601623097528e-01 -2.255212434534307336e-02 -7.893614680608725120e-02 8.141767415370383676e-02 9.474028062775544101e-02 -1.234145208850507547e-01 -2.539294756100475281e-01 2.472617906312308822e-01 -1.103065881585449104e-01 1.386042725216232729e-01 -1.229334963980405621e-01 -4.513685153607193551e-02 5.888842709351142964e-03 7.656882307845296054e-02 1.504663151155767042e-01 1.376009239470639238e-02 9.476068507136808927e-02 7.431807712068468075e-02 2.612961145893148429e-01 4.203452510468376480e-02 -2.010491328596190896e-01 1.050621796865640611e-01 -2.347897013203389394e-01 -1.220881860509306499e-01 2.122529848613490533e-01 6.264685334929974425e-02 -1.401683872228416117e-01 -1.139420446157161926e-01 1.422290776240175969e-01 -1.004227751350571067e-02 4.069381527038944402e-01 6.695644047422104339e-02 6.538582234247855562e-02 -1.988912043508373473e-01 -6.628786182146717554e-02 3.213426669862713969e-01 -1.995120038557766373e-01 -3.629366290550049001e-01 2.759440263636551635e-02 1.405450789358343201e-02 -4.252772671419036699e-01 7.728318245115312068e-02 -3.101544691788289676e-02 6.649407987543794196e-02 2.088136968232359447e-01 -2.230502463218079212e-01 3.384458021930211169e-01 -7.353963479245230472e-02 5.520922584376605768e-02 -1.503210593366008652e-01 1.258738064662865697e-01 -1.706989208319120320e-03 2.580069040959794280e-01 -1.925084934693791286e-02 2.491044661836479962e-02 -1.234339546284854948e-02 -2.401383148848907356e-01 2.479623441640075032e-01 5.105336741296245123e-02 -2.120020264448246872e-01
4.193903566361874280e-02 -1.691184386316629540e-01 1.309156763193584233e-02 -1.462198867432269733e-01 5.192845873921828059e-02 -1.209903410164835658e-01 -2.018936002897466220e-01 -1.217159510229372382e-01 -2.244345876646722804e-01 -3.674820248265876776e-02 1.648403596844054131e-01 -3.590121893935085406e-01 -1.016169719351247116e-03 3.169357803496428705e-01 3.833859109971749640e-02 3.165163913770779880e-01 1.313034576747148380e-02 -2.834774150111624841e-02 -3.921931573807115323e-01 5.333533291774483071e-02 -4.892951909220620843e-01 1.657591754595010569e-01 -4.766246724938542206e-02 -2.020148028783559993e-02 2.047609988497016975e-01 2.568194933596076313e-01 2.174578372042066943e-01 -1.557873778332519998e-01 -7.232362575839441643e-01 1.983324289149173969e-01 4.748435087485059630e-02 1.961506527506127751e-01 -7.003177785369926744e-02 1.455974164760040490e-01 1.545044999645329153e-01 1.296083991483752418e-01 1.136248683702710260e-01 -2.354055962954579306e-01 -4.164777025694069851e-03 1.877503610071726003e-01 1.818701672652633383e-01 -6.138127695013310264e-02 -5.079088029203866067e-02 -3.240775951586747916e-01 -8.231935456457253192e-03 1.989100081455584187e-02 -5.959259280300534950e-02 1.585625871336809600e-01 -1.704589144187044769e-01 1.639224518585768453e-01 -4.496905753869355482e-02 -1.500579750803823775e-02 -1.190881459942251253e-01 7.491737319018866581e-02 -2.436018014672115539e-01 2.349570956067923155e-01 -3.843320503841949898e-01 3.135910437445459942e-01 -1.370204122736734531e-01 -2.065443744445578378e-01 -5.799249923007912533e-02 -1.733164924753335251e-02 4.953616851087799290e-03 3.234521232624452125e-01 -3.813649064909066522e-01 -1.078680533774923067e-01 -2.105878448897504501e-02 -5.185430466437277591e-02 1.104092868898590013e-01 1.572559011493165348e-01 1.552635249823497779e-02 -3.350175060098822821e-02 8.158476829277297449e-02 -1.187582609773307069e-01 2.210835018815561492e-01 -2.644065205585544726e-02 1.719771708456853052e-02 -1.004731675181070732e-01 -2.277292152334050856e-01 -1.497238633533674035e-01 -2.964443956017009940e-01 4.341587091044840641e-01 -7.804198932280913270e-02 1.638032134194837841e-01 4.881169193604541212e-02 7.192018065153805984e-02 1.272721463983786661e-01 2.285291689624727451e-01 -2.806727333019813642e-02 -2.509768998371355586e-01 2.220933094995275123e-02 2.807920128546311234e-01 -3.038094918221290741e-01 8.692770952056907974e-02 -6.163175314869132060e-02 -2.835865250555958395e-01 2.397589807995142430e-01 -1.606164274495115452e-01 1.234724759425919888e-01 3.807529935660846077e-01
8.258121556827353882e-02 8.304714712416272349e-02 1.350389233054607174e-01 3.842886229202861492e-01 2.746877215841267428e-01 -1.217678742700965405e-01 -1.180320647677430418e-01 -3.274451916471908253e-01 4.023580251425656895e-01 1.598265700492571550e-01 2.597257780341171718e-01 2.620590130607488438e-02 -2.812605306366630989e-02 -5.534688192010719238e-03 -1.731867768069227445e-02 5.484706815867233104e-02 -1.085028870030273762e-01 -3.259289012842274680e-01 -3.050838796754474225e-01 8.763687714825654784e-02 -3.689591646274051895e-01 2.763962528707188393e-01 5.765832678562542168e-02 1.082027251571858195e-01 4.438002095903626626e-02 3.224039657541777348e-01 -2.168149146251284742e-01 3.058907173915704214e-01 -1.102805848052729049e-01 -9.385433770979852153e-02 8.191533068405346119e-02 1.933099007188980936e-02 1.914342469942854549e-02 -5.653285738438538349e-02 2.075411643604000989e-01 9.167637077717533112e-02 2.037510752495711452e-01 2.103079809225284202e-01 2.151275095516630986e-01 -4.698749695371609580e-01 -2.542728531175897366e-01 4.677086626106623235e-02 6.661672764535168934e-02 2.885422593954624082e-01 -1.505368397166516881e-01 -9.619067641143379255e-02 9.752639924476393107e-02 1.445190728810346881e-01 2.657616711796981779e-01 -9.236617988003455182e-02 2.058771971518370131e-02 -4.271712292474237616e-02 2.216877888221214718e-02 2.593641240243449442e-01 -2.516788810389272157e-01 7.140218668054988671e-02 3.142563769089908865e-01 7.276610886326274723e-03 -2.995545517051092510e-01 -2.528955707820603194e-01 1.161797672116685470e-01 2.253679566117171296e-01 2.855613808951343868e-01 2.753064925451866873e-01 4.310304286795934581e-01 3.459024645945228960e-01 5.172679289494690885e-02 -7.897859659936642962e-02 2.287576734152137470e-01 -2.120047904264245886e-01 2.094283677496215357e-01 2.703289716170700352e-01 1.779087593708505444e-01 -3.412980879547419244e-01 7.697283186430371738e-02 -2.241526624006238977e-02 1.014689166632389977e-01 -4.715165421493146269e-02 3.084199844123849954e-01 -6.361403809407145671e-02 -1.703581703721739893e-01 5.164360610846904093e-03 -7.563351460772013701e-02 6.313119638103153498e-03 2.124074312088815586e-01 2.409100447378495213e-01 8.984101926509936720e-02 1.390564086621766671e-01 -3.569882835363066276e-01 -1.286125518276313162e-01 2.286300300551225295e-01 4.968633527992865478e-02 -6.845607045754358022e-02 5.046493335771276220e-03 -1.017033992596392822e-01 1.646329298629988780e-01 -2.021520043175012160e-01 1.368154687448460138e-01 -8.874967631670052648e-02 5.866823968541488854e-02
-8.376562299871262440e-02 -8.355831541484719238e-02 -1.811809580264443428e-02 1.501805422736094981e-03 -4.864264649312523975e-02 -2.740171940659700406e-02 2.635486067647721878e-02 1.434436072833808751e-01 7.657769381929666053e-02 -1.437270872093295571e-01 -1.710988812273159590e-02 1.770625982919882824e-01 2.687312187064854353e-03 -4.466325206949849080e-02 -1.962379302758579525e-01 2.160630174783746138e-01 2.734877380140257608e-01 8.815414789705472431e-02 2.233539220338576214e-02 2.264752128399077635e-01 1.966201995565004801e-01 2.743021215135395541e-01 -2.267682461251882900e-02 3.056524426936976235e-01 7.850205061026493958e-02 -1.405821799621858118e-02 -2.574620279875888262e-01 2.093470961073832237e-01 -3.223709109106627779e-01 3.479081463618711317e-02 2.181780602750137132e-02 2.488402144435721275e-01 -2.455500399554499114e-01 4.221545841313479458e-02 -8.254917935991064326e-02 1.079030933380187435e-01 3.645538525854993134e-02 -1.863144402105983144e-01 6.836966459654198261e-03 -3.025643694016373619e-02 1.820727280630357603e-01 -4.896711071177205915e-02 -8.914607939807844134e-03 9.706737073908822122e-02 -3.983080835465076519e-01 1.441174531565772299e-01 -8.031234733805846238e-02 4.209471184080404438e-01 7.271564974968938722e-02 -1.019881918510807950e-02 6.734048916393824136e-02 -1.843194574440091826e-01 2.250011685151016017e-01 -2.425498752508833955e-01 -2.115176719593672705e-01 9.323994599570471775e-02 -7.719158113967559964e-02 3.468143902892276698e-01 -5.574002938576730348e-02 4.839476882492849824e-02 3.223371792616391285e-01 4.862500942814192845e-02 -3.054082089077370665e-01 4.930703454365067961e-02 -3.422381195001869547e-02 -1.249846215127855403e-01 1.868241220803149374e-02 1.421677832235296035e-01 2.488198120368496913e-01 1.690616986095383190e-01 3.013821296796532767e-01 -1.228010033419679597e-01 4.184519750983240471e-01 -1.796474385614796887e-01 1.579868879782035107e-01 1.876063398157819806e-01 4.285244433181677887e-02 -5.005372870283097270e-02 7.996879901551270931e-02 -1.203434780554125116e-01 1.926155452917702182e-02 2.649967584950718713e-01 1.408086438327048502e-02 4.390470419217374493e-02 7.090333070670196136e-02 8.909428944993030841e-02 1.452097842072218592e-01 -1.317470798103107139e-02 1.078504560203725204e-01 -8.087623788150073365e-03 -1.293374067367261682e-02 -7.357795917471986191e-02 -3.355670686306341105e-02 9.051310096208102507e-02 1.039858731719057600e-01 -1.858507305602042151e-02 -9.789787862088859816e-02 2.524391977145593741e-02 -2.250305173070970555e-01 -1.271258438182981676e-02
-3.036284676424093054e-01 -6.047252148786896181e-02 1.850450654001702389e-01 -1.454024483299531378e-01 -5.768181076242211852e-02 2.945351013567903617e-02 -2.487684716488820086e-02 -1.643300307414049394e-02 -4.245977698782745641e-02 -9.202403498712058427e-02 1.863933774809292121e-01 1.918838349869433635e-01 -2.341570661743398382e-02 -2.140296848291796672e-01 -7.118455799395738415e-02 3.753690894899995301e-01 -6.396577696315740302e-02 -2.587214117416510306e-01 -1.352355359602328000e-01 -9.437225286087519427e-02 -1.274937785387935674e-01 2.083014623195207360e-01 -1.989254917656951283e-01 4.015996398540951778e-02 -1.626854509521660219e-01 4.807981297300593926e-02 -1.262086551618853483e-02 8.706960137905905839e-02 -1.366050690188642946e-01 3.199658574152460244e-01 1.150107594991141152e-01 1.218915101718236610e-01 -2.792666643430806173e-01 9.571133502880382893e-02 -6.061554358252358582e-02 -1.024220394936853212e-01 -7.162942792374919765e-02 1.652917532659678168e-01 2.605815434906937327e-03 2.371893185410225979e-01 -1.466240288585716756e-01 4.772190074826352518e-02 -1.103648817595026012e-02 -3.997536548498446113e-02 1.910032089926774479e-01 -1.892912177409347141e-01 -1.260262998569746939e-01 6.764211220932614399e-02 9.998990130218875227e-02 1.826553368220719120e-01 1.240105117455493448e-02 2.378133710216788488e-01 1.572844332556244951e-01 2.005776021655433505e-01 -2.086684591835729630e-01 3.142968444953625484e-01 3.685139700529121987e-02 -2.481133484299257175e-01 -1.149775008863556380e-01 -9.130094005148227387e-02 -2.212768853540725000e-01 3.654019143355327071e-01 -3.948011297507831446e-02 9.874545336157404540e-02 -1.074730002128116563e-01 -4.927614023543262778e-02 -9.644150395485305560e-02 -2.446428645449733735e-02 1.768158438967966373e-01 2.202374133924856203e-01 -1.203459883997942681e-01 2.024807230654256662e-01 -2.198827390360335032e-01 1.000005759617948048e-01 -1.452744429195412454e-02 1.543665445934371341e-02 1.312625923922291216e-01 1.233632032220011512e-02 2.880638810346218825e-01 1.768312343508965379e-01 -5.812831068816331354e-02 -6.916932440372011714e-02 -3.713873408955318811e-01 9.222514548982527205e-02 2.783802016006190969e-02 8.954133776953289436e-02 8.686401241575272825e-02 -1.275123565091560163e-01 2.166379334657953220e-03 -4.518602416860179050e-02 -1.137828381044299212e-03 6.059122771198680729e-02 2.151653764554014581e-01 1.607877610679395997e-01 6.659179435020157189e-02 -2.228590424217728738e-01 1.742106130823380117e-01 8.266403951798158289e-02 1.139612732859321964e-01 -2.387818644962058038e-03
