# Weights for layer 1; shape (24, 4)
9.701701508811717556e-01 3.135859132355021117e-01 -8.275858398108455471e-01 -1.913061810749724145e+00
-6.694367021598643386e-02 -3.361214648200972488e-01 3.264549478515231251e-01 -2.910582593234420923e-01
-8.131572767675934732e-02 -1.470624991632742407e-01 -1.287940786515812119e+00 5.312651055591790517e-01
1.117565521274426210e-01 1.429612511602238900e+00 -1.196776017655878599e+00 -7.506322485315035653e-01
-2.316894235332579155e-01 -1.107996537936380754e+00 1.106281986429366704e+00 -5.448168309906197271e-01
-8.054496138183593335e-01 -6.297412876610331001e-01 2.729261024579419104e+00 1.294099580091561785e+00
-6.999418837403513782e-01 -5.082012542173264258e-01 4.406342558578866808e-01 -1.391628950388785479e-01
-6.601116207480866027e-01 -5.289877145158994320e-01 2.096327181323413225e+00 2.680682237107080645e+00
-2.642012829469106983e-01 3.042304116682698623e-01 -1.732677737585677225e+00 -2.689368916106170015e+00
-5.160749574683937135e-01 -8.075611274812478646e-01 1.667164701476408162e+00 5.443684901274213894e-01
-9.292299678624699188e-01 8.020799352046971142e-01 -6.075654512051894551e-01 -1.429000462335161981e+00
-2.333454272585933909e-01 -4.218657590768723487e-01 -4.966532367123109304e-01 -5.840641208077475971e-02
-1.539733964695046975e+00 -1.706047871209267486e-01 7.834450438296686192e-01 6.489702725873321976e-01
7.986740813151403939e-01 7.768000036759842297e-01 1.083781746447777472e+00 -7.936920369762386906e-01
8.661401414436975532e-01 -1.138720073750317141e+00 -1.075986882567786074e+00 -2.083265374435179673e+00
3.265791663647669152e-01 6.629775865450767691e-01 1.326965014518860508e-01 1.638967677152313618e+00
-3.590258998775806010e-01 3.466759547178567269e-01 -4.958098500533028585e-01 -1.208567298388971256e+00
1.543206316960202447e-02 1.487862174613176602e+00 -1.727200865412232167e+00 6.826895587072935589e-02
-3.120513762706921268e-01 1.063667077830904084e+00 6.284946842414989021e-01 7.627032286788270055e-01
2.223148388511535789e-01 6.396252264002907362e-01 -2.438088200533834904e+00 2.861185829053046747e-01
-1.195830245913910295e+00 1.086637247373561654e-01 4.658275960026260210e-01 -4.042254859421485214e-01
-3.259224481825800240e-02 1.005993494226250062e+00 -9.651590385314824383e-01 -1.236207513922120471e+00
-2.054169237444817941e+00 -6.808553503659356965e-01 -4.175436565908956510e-01 -3.641761445363802530e-01
-5.878103682640074545e-01 5.735185292510881494e-01 -9.443727744529475387e-01 -3.673625327600128498e-01
